digraph Tree {
node [shape=box, style="filled, rounded", color="black", fontname="helvetica"] ;
edge [fontname="helvetica"] ;
0 [label=<city &le; 9.89<br/>squared_error = 0.08<br/>samples = 256<br/>value = 0.51>, fillcolor="#f2bf9b"] ;
1 [label=<premium_support &le; 0.14<br/>squared_error = 0.08<br/>samples = 251<br/>value = 0.51>, fillcolor="#f2bf9b"] ;
0 -> 1 [labeldistance=2.5, labelangle=45, headlabel="True"] ;
2 [label=<missing_age &le; 0.34<br/>squared_error = 0.08<br/>samples = 176<br/>value = 0.52>, fillcolor="#f1bd98"] ;
1 -> 2 ;
3 [label=<city &le; 4.02<br/>squared_error = 0.08<br/>samples = 146<br/>value = 0.52>, fillcolor="#f2be99"] ;
2 -> 3 ;
4 [label="(...)", fillcolor="#C0C0C0"] ;
3 -> 4 ;
19 [label="(...)", fillcolor="#C0C0C0"] ;
3 -> 19 ;
44 [label=<total_extra_data_charges &le; 4.65<br/>squared_error = 0.09<br/>samples = 30<br/>value = 0.54>, fillcolor="#f1ba93"] ;
2 -> 44 ;
45 [label="(...)", fillcolor="#C0C0C0"] ;
44 -> 45 ;
68 [label="(...)", fillcolor="#C0C0C0"] ;
44 -> 68 ;
69 [label=<age_binned &le; 3.95<br/>squared_error = 0.06<br/>samples = 75<br/>value = 0.47>, fillcolor="#f3c4a3"] ;
1 -> 69 ;
70 [label=<payment_method &le; 0.83<br/>squared_error = 0.08<br/>samples = 29<br/>value = 0.46>, fillcolor="#f3c6a6"] ;
69 -> 70 ;
71 [label="(...)", fillcolor="#C0C0C0"] ;
70 -> 71 ;
94 [label="(...)", fillcolor="#C0C0C0"] ;
70 -> 94 ;
109 [label=<reffered_friend &le; 0.55<br/>squared_error = 0.05<br/>samples = 46<br/>value = 0.48>, fillcolor="#f3c3a1"] ;
69 -> 109 ;
110 [label="(...)", fillcolor="#C0C0C0"] ;
109 -> 110 ;
133 [label="(...)", fillcolor="#C0C0C0"] ;
109 -> 133 ;
148 [label=<offer &le; 4.98<br/>squared_error = 0.05<br/>samples = 5<br/>value = 0.59>, fillcolor="#f0b58b"] ;
0 -> 148 [labeldistance=2.5, labelangle=-45, headlabel="False"] ;
149 [label=<squared_error = 0.0<br/>samples = 1<br/>value = 0.59>, fillcolor="#f0b489"] ;
148 -> 149 ;
150 [label=<zip_population &le; 34.51<br/>squared_error = 0.06<br/>samples = 4<br/>value = 0.58>, fillcolor="#f0b58b"] ;
148 -> 150 ;
151 [label=<paperless_billing &le; 0.14<br/>squared_error = 0.02<br/>samples = 2<br/>value = 0.46>, fillcolor="#f3c5a5"] ;
150 -> 151 ;
152 [label="(...)", fillcolor="#C0C0C0"] ;
151 -> 152 ;
153 [label="(...)", fillcolor="#C0C0C0"] ;
151 -> 153 ;
154 [label=<total_charges &le; 1478.64<br/>squared_error = 0.07<br/>samples = 2<br/>value = 0.71>, fillcolor="#eda572"] ;
150 -> 154 ;
155 [label="(...)", fillcolor="#C0C0C0"] ;
154 -> 155 ;
156 [label="(...)", fillcolor="#C0C0C0"] ;
154 -> 156 ;
}